-0.706737
0.243206
-1.22545
1.25058
-1.71491
-0.212526
4.62092
1.11331
0.657561
5.30269
-0.296063
0.164206
-0.27472
0.224705
1.90202
0.489778
-1.35312
-2.52212
-0.652402
0.73061
4.5301
-0.124728
-0.0535971
4.59888
-0.0416933
-14.7622
0.1133
-0.0902833
0.208262
-1.10923
-10.6763
-11.1733
0.442652
-0.600486
0.602166
0.504591
2.61865
0.393996
4.46925
1.32147
0.110663
0.0103201
0.0336836
0.817422
-0.208673
8.44555
1.6099
-0.36404
0.308198
4.77731
6.09543
6.54143
-0.211232
-0.593439
-1.04037
-0.470673
-0.0772966
0.168608
0.125641
-1.55867
18.0273
0.324592
0.86862
8.31903
1.32465
41.3338
4.73139
1.08297
0.219689
-2.05133
29.7722
31.8679
0.465146
0.716426
0.0835744
0.241005
9.292
2.40319
17.6818
-3.10861
-5.59117
-2.99801
-2.64299
-1.46894
-2.43986
17.7656
-4.51833
-3.23878
-3.18929
-5.82225
12.3786
13.5048
-2.93864
-3.04927
-2.24701
-2.8729
-4.88375
-2.17325
-5.41846
-2.98001
9.62222
0.153256
-0.977046
5.17498
-1.24337
-14.4538
2.24324
0.742095
0.203624
-4.54603
-10.6108
-11.1517
-0.176174
0.240671
1.356
0.514206
-2.42327
-1.88924
9.45685
2.1487
14.3874
