-0.807142
0.472941
0.94174
7.51978
7.79105
-0.290872
12.8058
-2.95095
0.00112904
0.52676
12.8754
-0.261172
0.0808782
-0.0318583
2.8759
3.13572
1.63557
1.00342
0.363116
-1.75588
1.67791
2.583
-0.490665
-3.0275
1.20149
-0.170791
-1.33254
14.1844
4.49926
-15.3656
2.08495
0.116643
4.63575
-0.859056
1.58819
1.08303
4.90572
3.58751
-0.554221
47.7278
0.734858
-1.43514
3.16898
0.689738
-8.46754
1.0186
6.95088
0.0108795
-1.42975
12.5596
3.34605
4.42153
-1.6806
-16.4576
5.5328
0.346558
-5.0668
-6.41023
-0.680074
-0.368832
0.0280486
-1.75386
-0.967212
-3.35383
-0.559252
-1.13619
-4.11992
17.9163
-1.22188
91.6589
-3.54422
-1.17113
-1.44007
-8.81693
8.8964
0.16833
-4.90895
-5.27064
0.649619
59.2789
-4.45225
-5.28881
-6.37845
-5.14331
-3.72385
-3.31072
-8.88636
-6.3948
-7.39224
40.2882
-8.31703
-8.13284
-7.57209
-1.14478
-3.62815
-3.88316
-4.59196
-4.81433
-2.98687
-23.292
-0.868113
-3.17574
3.61475
-5.09546
8.65822
0.721427
-8.63189
-6.51322
-6.42507
-22.7647
6.50265
7.07364
-7.24237
10.8351
1.23552
-1.57874
1.30915
1.24904
-0.591589
27.0031
1.01386
