-0.602694
0.25233
-1.27652
0.646274
-1.79743
0.059294
4.83586
1.3861
0.65634
6.22482
-1.0779
0.283011
-0.301909
0.251859
3.25088
0.575274
-1.72917
-2.5959
-0.575227
0.919081
7.34317
-0.129052
0.0407609
4.55806
0.0966839
-16.1415
0.747031
-0.0343666
0.20684
-1.62767
-12.7969
-12.1928
0.450331
-0.602152
0.664931
0.514195
4.25212
0.778693
7.25989
1.49209
-0.0311889
-0.00280172
-0.132632
0.881677
-0.519501
8.52009
1.25432
-0.44881
0.282927
5.60959
5.63141
6.53893
-0.216291
-0.598518
-1.74497
-0.51776
-0.565821
0.379806
-0.0138395
-1.70534
19.4846
0.281204
0.751669
9.03338
1.15731
44.2078
4.55278
0.956215
0.175607
-3.52025
31.3436
34.1124
0.435891
0.647165
0.00333315
0.146588
9.92584
2.69951
19.0159
-3.34974
-6.17286
-3.06417
-2.80594
-1.47641
-2.67631
19.0189
-4.46585
-3.27875
-3.24872
-6.30547
13.3369
14.361
-3.00712
-3.12307
-2.44741
-2.95388
-4.83972
-2.64184
-5.94405
-3.1967
10.0042
0.180569
-0.910655
5.24328
-1.13125
-14.8688
1.72457
0.751238
0.253306
-5.27304
-11.4225
-11.5672
-0.203587
0.254238
2.07222
0.557142
-2.36983
-1.67064
9.83367
2.19048
15.0489
